0.39338145818066894
-0.016822118319248267
0.8705416184298452
-0.018642535520216868
0.3870985178972159
0.14067696850392314
-0.004335939507148207
0.2967880876059654
-0.005424754308864181
0.13977940650384588
16.66052341864182
2.5678232496728315
-18.243950457878462
2.137644405695615
3.1220406161328453
0.8162669749341489
2.7925498981656216
2.4971348023626256
2.891666459504438
0.8157548437680083
1.4568058594746425
-0.017709481178427508
0.8122523765689874
-0.018936595645576672
2.232412159219665
-0.7266819732232547
-0.0006900270587433281
-0.213868965078411
-0.00039444126651704784
-0.9424244987041922
0.5421243555015726
-0.013080329033007739
0.4156269645961109
-0.012040794758117614
0.9429506759774392
0.5380833820659894
-0.004613056561076155
0.2844828372769774
-0.005485433417825306
0.8124667338901771
-1.2119083905816201
-0.0021331979931331507
-0.6636009278362861
-0.0026260707303406884
-2.4853748760837955
0.005872022820406958
-0.0064850147589726684
-0.015430280070428196
-0.0015575291368358027
0.007714277237493882
-0.0023008608052595887
-0.00012147435744190051
-0.04442281880191173
-4.79437580903973e-05
-0.0028804038650648684
0.0019551865565095696
-0.004668860718611708
-0.004451545703782309
-0.0009179398695949206
0.0027199910997745247
0.002039224711125385
-0.0017438611829788241
-0.004875058959861707
-0.0004444079779491488
0.0026571145848699553
-6.514305015885386e-08
-0.0003215150740783343
-0.0001398057558173297
-1.601024734569148e-05
5.896162550228115e-06
0.8264781237702841
-0.12981156162884178
4.194837560733833
-0.12287822433563311
2.1290812982869993
-1.3766877497560746
-0.00413495974577273
-1.1504397181572736
-0.0023161914611719964
-1.6481651048114263
2.198760474773602
-0.10077957254352288
2.2641492678693496
-0.08208341739855443
3.464654681486647
0.41552119623959716
-0.032577042084002195
1.4774852885043936
-0.03549238308459883
0.8849095893453406
-20.75710223071912
-0.11795888594333614
-27.69109705819582
-0.10982895439292083
-38.557638344414464
-0.3870791180610314
-0.0004926913568456473
-0.21377094518365705
-0.00039444126651704784
-0.3870791180610314
0.23458426798544937
-0.006767994850406958
0.301723263440633
-0.006762107033688922
0.2365375419376544
1.9472729220279326
-0.14291775200390375
1.4963884310265159
-0.09815890781551413
2.027870325245647
-1.2368381386530547
-2.527593621803905
-2.0648373929297885
-3.219042987918041
-1.1831919771475314
-1.976657879712483
-3.1583170085517476
-3.1948692887819012
-3.5635790811363415
-1.8701787769635643
-2.1200522522938616
-2.868580026019983
-1.1549559306879709
-3.474261539473179
-2.043715315042222
1.6746481672372242
5.645540083972919
-4210.134872341418
5.587332184514201
-0.5618447793006387
-1.9871156653092135
-2.398564280563141
-5.303465723325036
-131.6777758946598
644.9631037606634
111.95450100963014
